{"levels":[{"inputs":[0.8325516311960182,0.7915046667472949,0,0.4385405378428914,0.7839451136417446,0.8451455508797914,0.8658115330729619],"outputs":[0,0,1,0,1,1],"biases":[-0.49206689473562715,-0.7042729389216035,-0.28415999691272126,0.24474645184667926,0.11803253302101802,-0.14991120276467707],"weights":[[-0.3016266410744542,-0.1028876166451429,0.5084238969789598,-0.1294264811634557,-0.7012666073125666,0.08966413310816244],[0.10411759280249544,-0.2022240940126354,0.8971126324262454,-0.29648180363982873,0.152003755036609,0.3458305642190539],[-0.19744608016273224,-0.10880518179623648,-0.26972058783769,0.07778388352391397,-0.15218129514806505,0.8210977781159662],[0.328064956260157,-0.38491749185951685,0.39841336988039444,-0.622521386072761,0.2843593038116393,0.3137644647915262],[-0.0868994436700084,-0.4903180579046492,0.5988929197904842,-0.6448213353409125,-0.3255347845087829,0.16648341510566866],[-0.35307394017918425,0.0895385061259043,-0.3523223416805691,-0.26814404240844036,0.513453255913539,-0.09431117606483352],[-0.42716827768287857,-0.37836906726443026,-0.3811416100511071,0.00198973882091992,0.3700477674508064,0.008822534401173532]]},{"inputs":[0,0,1,0,1,1],"outputs":[1,1,0],"biases":[0.2840982452154549,0.10987916449237067,0.010563210381374866],"weights":[[0.27116661693000116,0.3058920755586485,0.25711517712600607],[0.6375184766085453,-0.6139705727308518,0.20353949202153737],[0.11106257397391128,-0.5263363695368157,-0.10302834886958856],[0.6133499535608271,0.06103749312610118,-0.5414071262495923],[-0.11237245140917318,0.2466650355667998,-0.15007846278191206],[0.4066039885509599,0.4267154899777843,-0.5458454670044097]]}]}